{"n_inputs": 38, "n_configs": 16, "config_names": {"0": "sns0_f30_seg1", "1": "sns0_f30_seg4", "2": "sns0_f60_seg1", "3": "sns0_f60_seg4", "4": "sns25_f30_seg1", "5": "sns25_f30_seg4", "6": "sns25_f60_seg1", "7": "sns25_f60_seg4", "8": "sns50_f30_seg1", "9": "sns50_f30_seg4", "10": "sns50_f60_seg1", "11": "sns50_f60_seg4", "12": "sns80_f30_seg1", "13": "sns80_f30_seg4", "14": "sns80_f60_seg1", "15": "sns80_f60_seg4"}, "feat_cols": ["feat_screen_content", "feat_text_likelihood", "feat_natural_likelihood", "feat_flat_color_block_ratio", "feat_distinct_color_bins", "feat_variance", "feat_edge_density", "feat_uniformity", "feat_high_freq_energy_ratio", "feat_palette_fits_in_256", "feat_indexed_palette_width", "feat_line_art_score", "feat_skin_tone_fraction", "feat_edge_slope_stdev"], "scaler_mean": [0.1963077015393761, 0.22309154104136053, 0.3978425863343978, 0.19521752336314407, 2269.9180327868853, 3014.2649110887874, 0.12735758387086699, 0.4882731520815096, 0.15088876979578225, 0.06557377049180328, 0.45901639344262296, 0.04609730363380714, 0.21483328942360727, 26.477992737879518, 0.0, 0.0, 0.8852459016393442, 0.11475409836065574, 12.852354190388663, 165.840690737865, 0.800000011920929, 0.6416666706403097, 10.281883286648108, 0.15704616448974626, 0.1784732353929532, 0.3182740733154688, 0.15617402034281763, 1815.9344495450212, 2411.411961789991, 0.10188606852166802, 0.39061852695186283, 0.12071101748654263, 0.05245901717514288, 0.36721312022600017, 0.03687784391267052, 0.17186663381500414, 21.182394488913115, 0.0], "scaler_scale": [0.23564826822245166, 0.14451931300684287, 0.21835710472684075, 0.2727304153371738, 2330.1190660852158, 1445.434049584611, 0.11658587132470803, 0.24500679079832785, 0.13836271705458902, 0.24753555525477888, 1.7886139930473257, 0.13631158355899134, 0.2370065556578685, 15.169618235949754, 1.0, 1.0, 0.3187249523807146, 0.3187249523807146, 0.8109765648391897, 22.500236221547226, 0.04082483877978404, 0.06533036801322008, 0.8350558621318501, 0.18893397674965562, 0.11612360720634415, 0.17566545839301895, 0.2186135638845668, 1868.8198900363827, 1164.3728385159588, 0.09353468316907214, 0.19727019237636567, 0.11100526024909697, 0.1983041995321639, 1.4328756869169577, 0.10920738444935502, 0.19005444498872637, 12.199470860203391, 1.0], "layers": [{"W": [[-0.2539955973625183, 0.2501857280731201, -0.09938996285200119, 0.2270554155111313, 0.06770782917737961, -0.036663103848695755, -0.11485332250595093, -0.0007440156769007444, -0.025968918576836586, 0.3865072727203369, -0.1448838710784912, 0.012974758632481098, -0.09538030624389648, -0.14344899356365204, -0.30748894810676575, -0.15289431810379028, -0.2802087366580963, 0.35657501220703125, 0.02566206455230713, 0.04383280128240585, -0.2619546949863434, -0.2172943502664566, 0.03347700089216232, 0.19753679633140564, 0.06824192404747009, -0.17126986384391785, -0.01174210850149393, -0.3111279010772705, -0.09512299299240112, 0.10663574188947678, 0.3064258396625519, 0.1465405523777008], [0.29254624247550964, 0.13845114409923553, -0.23449480533599854, 0.016617950052022934, -0.02870054729282856, 0.23861344158649445, 0.15163370966911316, -0.11977092921733856, -0.011545032262802124, 0.1442449539899826, 0.29636073112487793, -0.24564751982688904, 0.10478020459413528, -0.02210688218474388, 0.009294603019952774, 0.2346946895122528, 0.35235321521759033, 0.03876693546772003, 0.176017165184021, -0.1064816266298294, -0.09832794219255447, -0.17664851248264313, -0.020574279129505157, 0.1640734076499939, -0.11073874682188034, -0.2533450126647949, 0.07075891643762589, -0.2815587818622589, -0.23785556852817535, -0.06653560698032379, 0.27087584137916565, -0.021182937547564507], [-0.10902023315429688, -0.26871004700660706, 0.18282529711723328, 0.015862535685300827, -0.20990639925003052, 0.011881408281624317, -0.036442022770643234, -0.07051657885313034, -0.3234530985355377, -0.029083630070090294, -0.09342944622039795, -0.2274954468011856, -0.07404930889606476, 0.1305164396762848, 0.09213808178901672, 0.311599999666214, 0.10401952266693115, -0.06576864421367645, -0.18775339424610138, -0.20458169281482697, -0.16362527012825012, -0.09014828503131866, -0.037052053958177567, -0.024486640468239784, -0.020092058926820755, -0.08580464124679565, -0.09333013743162155, -0.15878869593143463, 0.20903779566287994, 0.26025137305259705, -0.2142854928970337, -0.1719943881034851], [-0.1055731400847435, -0.0010072530712932348, -0.17772193253040314, -0.08655121922492981, 0.28260669112205505, -0.2265588790178299, 0.1391192227602005, 0.03688471019268036, 0.2151264250278473, 0.11830873787403107, -0.20579713582992554, -0.37913066148757935, 0.12625552713871002, -0.04398248717188835, 0.1254752278327942, -0.3622657358646393, -0.17059515416622162, 0.2711385190486908, 0.2617872357368469, -0.2058517187833786, -0.08666156232357025, -0.09923642128705978, -0.20618556439876556, 0.0745282918214798, 0.16504046320915222, -0.017568005248904228, -0.2183263897895813, -0.1385759860277176, -0.37510988116264343, -0.09753074496984482, -0.24597926437854767, 0.11303369700908661], [0.1808929294347763, 0.2624041438102722, -0.3251505196094513, 0.051906853914260864, 0.013401933945715427, -0.1667560338973999, -0.11785957962274551, 0.07593134045600891, -0.01638299785554409, -0.10765594244003296, -0.15037256479263306, -0.05208935588598251, 0.1686115264892578, -0.2597883641719818, 0.23775137960910797, 0.2353537529706955, 0.1629868596792221, -0.007865158841013908, -0.06749125570058823, -0.06832434237003326, -0.16667073965072632, 0.10875421017408371, 0.11208978295326233, -0.3808213770389557, -0.10145016759634018, -0.10157015919685364, -0.04274675250053406, -0.22080792486667633, 0.0757913812994957, 0.12343553453683853, 0.03781126067042351, 0.0570489726960659], [-0.12892290949821472, 0.21979154646396637, -0.13246971368789673, -0.3822338581085205, 0.08293067663908005, 0.2739604711532593, -0.11935088038444519, -0.0022158545907586813, -0.03418910130858421, -0.04439006745815277, 0.35430997610092163, 0.13224506378173828, 0.268426775932312, -0.2460818588733673, 0.1846892088651657, 0.16340194642543793, 0.3025566637516022, -0.023239431902766228, 0.08625562489032745, 0.2660406827926636, -0.112977996468544, 0.06339270621538162, -0.10583095997571945, 0.2410566359758377, 0.17284493148326874, 0.2641778886318207, -0.0758621096611023, 0.09788062423467636, 0.17226430773735046, 0.07927248626947403, -0.18082663416862488, -0.0025263328570872545], [0.345700204372406, 0.05619077384471893, -0.17006294429302216, -0.14301365613937378, -0.04585210233926773, -0.08233722299337387, 0.018480196595191956, -0.05926338955760002, -0.30871325731277466, 0.2761765718460083, -0.16760560870170593, 0.2427678406238556, -0.0926484689116478, -0.11884302645921707, -0.015428717248141766, 0.11362490803003311, -0.13271933794021606, -0.02397925779223442, -0.08995810151100159, -0.0372852087020874, 0.20370060205459595, -0.17254821956157684, -0.159418985247612, 0.07387049496173859, 0.050086162984371185, 0.1535523533821106, -0.24269826710224152, 0.16574013233184814, -0.0440794937312603, -0.15252052247524261, -0.02538907527923584, 0.21387045085430145], [-0.258338987827301, 0.1635485589504242, -0.23555508255958557, -0.08779067546129227, -0.32762566208839417, 0.23909640312194824, -0.24859489500522614, -0.053275611251592636, 0.2711590528488159, 0.18972216546535492, -0.2130858302116394, 0.19701452553272247, 0.24073967337608337, -0.09039584547281265, 0.13601061701774597, -0.21516160666942596, 0.2785745859146118, 0.09198036044836044, 0.02869867905974388, -0.27549782395362854, 0.08054214715957642, -0.05856642872095108, 0.313210129737854, -0.3606431782245636, 0.10043041408061981, -0.026764990761876106, 0.4102969169616699, 0.10531572997570038, -0.004966821521520615, -0.2806241810321808, -0.30527085065841675, -0.2974383533000946], [0.05332567170262337, -0.040736787021160126, 0.0011399741051718593, -0.10580770671367645, -0.016645360738039017, 0.012311762198805809, -0.10864802449941635, 0.16039741039276123, -0.10585274547338486, 0.11541605740785599, 0.248609721660614, -0.17138339579105377, 0.21353338658809662, 0.2697898745536804, 0.17187488079071045, 0.08301407098770142, 0.09655638039112091, -0.2382078319787979, 0.024249853566288948, 0.12227288633584976, -0.07052262127399445, -0.13752934336662292, -0.13391229510307312, -0.023285850882530212, 0.1848067343235016, -0.3499623239040375, 0.5199140310287476, -0.09899236261844635, -0.04628251492977142, 0.049115367233753204, 0.09671418368816376, -0.14787226915359497], [0.04780669882893562, -0.23973900079727173, -0.4039458632469177, -0.2204069346189499, -0.17670628428459167, -0.5264336466789246, 0.2827857434749603, 0.034316230565309525, -0.3990330398082733, 0.06662360578775406, 0.1594836711883545, -0.25602489709854126, -0.3128681778907776, -0.4139602780342102, -0.21284762024879456, -0.19961149990558624, 0.1526760309934616, -0.3603956997394562, -0.07061361521482468, -0.20932258665561676, 0.04377572238445282, -0.0479697622358799, 0.015783460810780525, -0.06162302941083908, 0.18503960967063904, -0.17686401307582855, 0.13219887018203735, 0.006124953739345074, -0.33495238423347473, -0.25714588165283203, -0.11912138760089874, -0.1287938505411148], [-0.21652580797672272, -0.43631836771965027, 0.05254339799284935, -0.49637570977211, 0.08065038174390793, -0.48436346650123596, 0.3147289752960205, 0.1805742383003235, -0.27110323309898376, 0.36185222864151, -0.13590265810489655, -0.3196045458316803, -0.3752080202102661, 0.0061708856374025345, -0.034578822553157806, -0.4515407383441925, 0.1443917453289032, -0.023636793717741966, -0.15050795674324036, -0.20942191779613495, -0.28798937797546387, 0.04728846251964569, -0.3503105640411377, 0.24604791402816772, 0.0963122621178627, -0.4248904585838318, -0.11524879932403564, -0.31260982155799866, -0.17367665469646454, -0.05726234242320061, -0.026034990325570107, -0.2449713945388794], [-0.19434602558612823, 0.03926626965403557, -0.3284792900085449, -0.20806115865707397, 0.25331228971481323, -0.13957487046718597, -0.017832640558481216, -0.1449180245399475, 0.2596316933631897, 0.03163766488432884, -0.45046892762184143, -0.32566308975219727, -0.441579133272171, -0.004080250393599272, -0.2246839851140976, -0.2875209450721741, -0.06200963631272316, -0.32912981510162354, 0.05174728110432625, -0.007610982283949852, -0.2527763843536377, -0.31429147720336914, 0.2061080038547516, -0.19730643928050995, -0.08596199750900269, 0.2547634541988373, -0.22840864956378937, -0.24318911135196686, -0.02338264510035515, -0.4080365002155304, -0.47595125436782837, -0.31639885902404785], [0.00343306758441031, 0.2569752633571625, 0.334330677986145, -0.21587979793548584, -0.366550087928772, -0.0579381138086319, -0.37698855996131897, -0.058257076889276505, -0.3287283480167389, -0.1959642469882965, -0.3760162889957428, -0.11026996374130249, -0.13440324366092682, -0.1971333622932434, -0.09462056308984756, -0.18239590525627136, -0.18180860579013824, -0.11551813036203384, -0.05379638820886612, 0.07330980896949768, -0.16768187284469604, 0.06603225320577621, -0.28905153274536133, -0.48941174149513245, -0.31561315059661865, 0.15243376791477203, 0.0993301197886467, -0.25930559635162354, -0.20297536253929138, -0.013998517766594887, 0.27851012349128723, 0.23696044087409973], [-0.2481461465358734, 0.10796757787466049, -0.048660386353731155, -0.0035968467127531767, 0.24650926887989044, -0.033788517117500305, -0.26069533824920654, 0.015143920667469501, 0.08607149124145508, 0.05614442750811577, 0.21210655570030212, -0.3011837601661682, 0.15576548874378204, -0.1719665229320526, 0.02111886255443096, -0.1863560527563095, 0.08134104311466217, 0.016335951164364815, 0.05969242751598358, -0.16713710129261017, 0.1642722636461258, -0.1408822387456894, 0.38658368587493896, -0.013962709344923496, 0.2222210317850113, -0.05444405600428581, 0.08740228414535522, 0.04267498105764389, -0.025794975459575653, -0.14319398999214172, -0.1378466784954071, 0.04929725080728531], [-5.333985768629645e-07, 1.2303169440736473e-15, 4.279001431327691e-20, -1.3621109795636244e-09, 2.52380927803544e-17, -6.972994697207469e-07, 9.838230135144989e-21, 3.846209306509366e-21, -3.782338927096125e-19, -2.099355443338145e-18, 2.183833910373083e-17, -2.0382856034421498e-19, 2.4593200365075063e-08, -2.5426402650019497e-10, 5.935170323961847e-12, -5.9226383321703e-17, -2.59869210594843e-07, 3.6250773975503303e-14, -5.443383616455244e-18, 2.892923902572325e-17, 1.2110748039666428e-17, -1.1586307024913367e-08, 2.609614828646533e-14, 1.7653927740002533e-20, -4.3141217594827586e-15, -2.195849325278466e-20, -9.599427386319803e-08, -2.393388207162572e-16, 1.1021327339792691e-19, 1.8029098350259314e-18, -3.575376892337237e-14, 8.350942106992313e-20], [-1.0697355752096476e-20, -2.6780380958626872e-17, -6.405364394043996e-17, -2.4815446810924387e-19, 3.689817819774871e-15, -2.460407699800271e-08, 2.834772516143661e-20, -9.87771791197481e-22, 1.0584641375331873e-18, -2.1848428721970507e-16, -2.03065511072964e-07, 1.847113856435231e-20, -8.678967589048625e-08, -4.004833353832282e-09, -1.8466814188933256e-10, 2.9402638936383143e-20, 2.8647413343599426e-20, -1.3257422069867797e-11, 5.9157464083609e-13, -1.1559098135528728e-19, -1.6793002035866463e-18, -2.0824165292271635e-20, 9.60554208669453e-16, 2.3211279939363815e-19, 2.05608645752287e-21, 5.141375822859118e-07, 2.525833223558235e-17, -7.71615465763117e-20, 1.9504770209984074e-20, 2.9423802283545797e-10, 4.073942225235605e-11, -1.4523584700339154e-13], [0.47721806168556213, -0.16783690452575684, 0.1483847051858902, -0.054583948105573654, 0.047599516808986664, 0.1337757408618927, -0.16762778162956238, -0.24182000756263733, 0.09323642402887344, -0.27947497367858887, 0.20476949214935303, 0.07250447571277618, 0.42356956005096436, 0.3462751805782318, 0.46704381704330444, 0.421869695186615, 0.21939410269260406, 0.3505781590938568, -0.016286654397845268, -0.29046499729156494, -0.01648172177374363, 0.14869026839733124, -0.3055506944656372, 0.008668499067425728, -0.32556381821632385, -0.039410896599292755, 0.09108025580644608, -0.05377063900232315, 0.04968205839395523, -0.05523613095283508, 0.4218658208847046, 0.3473633825778961], [0.031988248229026794, -0.16208240389823914, -0.2418040931224823, -0.05954438075423241, 0.2142914980649948, -0.5157766938209534, 0.011035927571356297, 0.24109497666358948, 0.14669789373874664, 0.05047757178544998, -0.4881819784641266, 0.07687023282051086, -0.07125619053840637, -0.41677582263946533, -0.38954058289527893, -0.0682554766535759, -0.0723249539732933, -0.36706164479255676, -0.06044163554906845, 0.22440345585346222, -0.5310575366020203, 0.015293934382498264, 0.3425326347351074, -0.0018238539341837168, -0.09528148919343948, 0.23112016916275024, 0.049504633992910385, -0.3474070429801941, -0.2991926372051239, -0.32650643587112427, -0.5246573686599731, -0.27161160111427307], [-0.30599716305732727, -0.33166536688804626, -0.3389320373535156, 0.045461442321538925, -0.022153444588184357, -0.23038963973522186, 0.33275505900382996, -0.08129685372114182, 0.07752061635255814, 0.05871158465743065, -0.17655956745147705, -0.15092389285564423, -0.06470397114753723, -0.18696562945842743, -0.4252375364303589, -0.33284273743629456, -0.04818829521536827, 0.18681088089942932, -0.09197638183832169, 0.058382514864206314, -0.10247942060232162, 0.1789313703775406, 0.29503053426742554, -0.10761463642120361, 0.16341955959796906, 0.20507749915122986, 0.11767265945672989, -0.2569081783294678, 0.0990658700466156, -0.07306002080440521, 0.14546050131320953, -0.19731827080249786], [-0.008023366332054138, 0.15645433962345123, -0.17768651247024536, 0.34177008271217346, 0.28141626715660095, -0.2882710099220276, -0.07395012676715851, -0.169851616024971, 0.27606165409088135, -0.05830579251050949, -0.13329073786735535, -0.3918117582798004, -0.30563122034072876, 0.15486611425876617, -0.2879899740219116, -0.12038347125053406, -0.25830593705177307, 0.12506043910980225, -0.008769229985773563, 0.25857535004615784, -0.35467731952667236, -0.024416977539658546, 0.2293940931558609, -0.24379821121692657, -0.0015813794452697039, 0.3128903806209564, 0.017207320779561996, -0.12661078572273254, -0.36597591638565063, 0.048091355711221695, -0.11083722859621048, -0.1110454723238945], [0.19312788546085358, 0.026987385004758835, -0.10607320815324783, 0.01559468638151884, 0.0012145076179876924, 0.06356149911880493, -0.30328449606895447, 0.1508324295282364, 0.15293927490711212, -0.08730998635292053, 0.3104523718357086, 0.26415008306503296, -0.10976604372262955, 0.0653732493519783, -0.1623232364654541, -0.3069838583469391, 0.09441516548395157, 0.19009850919246674, -0.016818545758724213, -0.1819542646408081, 0.03857070580124855, -0.05619047209620476, -0.3576717674732208, -0.062067873775959015, -0.001283070887438953, 0.2718276083469391, 0.11371222138404846, 0.47030410170555115, 0.27391210198402405, -0.10579893738031387, -0.059066347777843475, 0.13726624846458435], [0.13379357755184174, 0.023102696985006332, -0.170404851436615, 0.10530810803174973, 0.01795453019440174, 0.20108412206172943, 0.14603324234485626, 0.029760733246803284, 0.11022105813026428, -0.11020763963460922, 0.2659033536911011, 0.27179673314094543, 0.13548621535301208, 0.13876473903656006, -0.23846904933452606, -0.2664431929588318, 0.10432881116867065, -0.16753867268562317, 0.09708734601736069, -0.13894692063331604, 0.272172749042511, -0.27796512842178345, -0.2892977297306061, -0.13020631670951843, 0.06653042882680893, -0.009471855126321316, -0.027904266491532326, 0.38143181800842285, -0.1910208910703659, 0.18485841155052185, 0.026622092351317406, -0.3245365619659424], [0.03517774119973183, -0.027681101113557816, 0.18404710292816162, -0.1408681571483612, 0.14230184257030487, 0.12342485040426254, 0.2370828092098236, -0.04390250891447067, 0.0969570055603981, -0.15024802088737488, -0.035126861184835434, 0.2738266885280609, -0.08792206645011902, 0.06785555183887482, -0.32719165086746216, -0.21193228662014008, -0.429374098777771, -0.09462589770555496, -0.032348521053791046, 0.03421596810221672, 0.06681449711322784, -0.3400455415248871, 0.2157055288553238, 0.20890995860099792, -0.17994627356529236, 0.30029919743537903, -0.09078492969274521, 0.2739080488681793, -0.05278630182147026, -0.10245843231678009, 0.2120533287525177, -0.08593878149986267], [0.01924978196620941, -0.03188306465744972, 0.013877314515411854, 0.39632245898246765, -0.1830478310585022, 0.14835523068904877, 0.1698903888463974, -0.07458055019378662, 0.22541211545467377, -0.009078231640160084, -0.16869448125362396, 0.03490292280912399, -0.16596382856369019, -0.06019853428006172, -0.09783431887626648, -0.08946085721254349, -0.010428198613226414, -0.033706340938806534, -0.005863368045538664, 0.18685472011566162, -0.05138590931892395, -0.24419718980789185, -0.22462482750415802, 0.05970098823308945, 0.09042136371135712, 0.35070931911468506, -0.22054609656333923, -0.12105870246887207, 0.04748249799013138, -0.12501373887062073, 0.013450915925204754, -0.31083908677101135], [-0.0394304059445858, 0.010994041338562965, -0.20327794551849365, -0.2705850899219513, 0.11618314683437347, -0.28754615783691406, -0.11768151819705963, -0.08951054513454437, -0.017899513244628906, -0.04874751344323158, 0.2098654955625534, -0.03710206225514412, 0.30621570348739624, -0.06001750007271767, 0.17851269245147705, -0.3027348518371582, 0.45223450660705566, -0.3916099965572357, 0.060173846781253815, -0.13064192235469818, -0.18021219968795776, -0.07504533231258392, -0.06840165704488754, -0.05782927945256233, 0.3419255018234253, -0.09932777285575867, -0.17369481921195984, -0.16433361172676086, -0.2936665117740631, -0.08390853554010391, 0.267787367105484, 0.20671579241752625], [0.26011133193969727, -0.2195393294095993, -0.16383624076843262, -0.38867923617362976, 0.10353183001279831, 0.24776943027973175, 0.14678314328193665, -0.21246926486492157, -0.2996481955051422, 0.024170031771063805, -0.024040304124355316, -0.06420069932937622, -0.018370386213064194, -0.04805102199316025, -0.1547059714794159, -0.2072300761938095, -0.10708069801330566, 0.18679019808769226, 0.07386092096567154, -0.07669272273778915, 0.2951033413410187, 0.24662679433822632, 0.16101589798927307, -0.1556449830532074, 0.2489602267742157, 0.035129547119140625, 0.09861347079277039, 0.3313269019126892, -0.08956848084926605, 0.05760286748409271, -0.1813526302576065, 0.01782306469976902], [-0.20563597977161407, -0.03053022176027298, -0.07902459055185318, 0.09367211163043976, 0.24486802518367767, -0.020167039707303047, -0.09385222941637039, 0.24528151750564575, 0.04054943844676018, -0.1802920699119568, -0.3963165879249573, -0.07282255589962006, -0.019435878843069077, -0.18056552112102509, -0.057782627642154694, -0.11770070344209671, -0.22158072888851166, -0.23814676702022552, -0.22568832337856293, 0.21166282892227173, -0.04028438776731491, -0.2629493474960327, 0.1401125192642212, 0.3536279797554016, 0.05379223823547363, 0.2135552018880844, 0.08742962777614594, -0.3123219311237335, -0.15428687632083893, -0.3349653482437134, 0.23037628829479218, 0.04266159608960152], [0.09111926704645157, -0.08882755786180496, 0.18675865232944489, -0.09736795723438263, -0.14400461316108704, 0.07179504632949829, -0.11973454058170319, -0.051006708294153214, 0.19608455896377563, 0.14229679107666016, 0.028696436434984207, 0.3410290479660034, -0.24478915333747864, -0.14621444046497345, 0.29851603507995605, 0.23518535494804382, -0.30228883028030396, -0.25132429599761963, 0.056112684309482574, 0.11941973119974136, -0.08296936005353928, -0.05307578667998314, 0.359892874956131, 0.14581045508384705, -0.12065210193395615, -0.18465155363082886, 0.021916059777140617, 0.011935600079596043, 0.10241857171058655, 0.19338731467723846, -0.2757088840007782, 0.05051654949784279], [-0.3522244989871979, 0.10287049412727356, -0.1623772233724594, -0.3591216802597046, -0.003392827929928899, 0.23373839259147644, 0.3383674621582031, 0.1043095737695694, -0.2536040246486664, 0.23763063549995422, 0.036704275757074356, 0.10244070738554001, 0.3249035179615021, -0.2224130928516388, 0.024854306131601334, -0.05977131798863411, -0.11798685789108276, -0.36852920055389404, -0.09604747593402863, 0.1400233954191208, -0.25051218271255493, -0.3227624297142029, -0.0842282846570015, -0.21743051707744598, 0.17099423706531525, 0.24307267367839813, -0.009543798863887787, 0.23551703989505768, 0.15998418629169464, 0.07103707641363144, -0.06883233785629272, -0.1401602178812027], [-0.11376557499170303, 0.12062327563762665, -0.12623737752437592, 0.2460985779762268, -0.06472478061914444, 0.2034163475036621, 0.12743084132671356, 0.20914170145988464, 0.09457270801067352, 0.03389079496264458, 0.03560695797204971, -0.1388217955827713, 0.2530224621295929, -0.1018766313791275, 0.03943067044019699, -0.140379399061203, 0.026796454563736916, -0.1646069586277008, -0.03022223524749279, 0.17381255328655243, 0.1781303435564041, -0.28238800168037415, 0.1242646872997284, 0.30428579449653625, -0.1451834887266159, -0.24100737273693085, -0.22519457340240479, 0.070003442466259, 0.007253170013427734, 0.12050783634185791, -0.14260505139827728, -0.05223257094621658], [0.11064191907644272, -0.05205992981791496, 0.24886448681354523, 0.08955743163824081, -0.20069384574890137, -0.10746335238218307, 0.30888843536376953, 0.10515639930963516, 0.14455102384090424, -0.19626930356025696, -0.058915577828884125, -0.2702890932559967, 0.2389463633298874, 0.0009698799694888294, 0.19560351967811584, 0.16624586284160614, 0.2617354094982147, 0.07812278717756271, -0.12435099482536316, 0.13606910407543182, -0.11681828647851944, -0.03446318954229355, -0.048185646533966064, -0.31969982385635376, -0.3452647030353546, 0.2736014723777771, 0.20217208564281464, 0.1456586867570877, -0.0122077576816082, -0.06912798434495926, -0.08321614563465118, 0.048378460109233856], [-0.10667996853590012, -0.1014011949300766, 0.0466189906001091, 0.14945784211158752, 0.2267829179763794, -0.23333266377449036, -0.0527789480984211, -0.1436980962753296, 0.06998436152935028, -0.025852613151073456, 0.2806151807308197, 0.010027896612882614, 0.014461822807788849, -0.14786715805530548, -0.13535113632678986, 0.09910368174314499, 0.2513394057750702, 0.12204752117395401, -0.15121440589427948, -0.09090203046798706, 0.039772022515535355, -0.11598367244005203, 0.26730406284332275, 0.40212732553482056, -0.16312353312969208, -0.27865415811538696, 0.11769451200962067, 0.10551884025335312, 0.15951916575431824, 0.19209589064121246, -0.03943832963705063, -0.09238995611667633], [-0.3511705994606018, -0.5476388931274414, -0.027329929172992706, -0.08588679134845734, 0.19896547496318817, -0.1510467827320099, -0.1359710693359375, -0.0026546292938292027, -0.2337828427553177, 0.0785708874464035, -0.31472665071487427, -0.05276527255773544, -0.43804898858070374, -0.30256661772727966, -0.34436511993408203, -0.005727959331125021, 0.12971577048301697, -0.4152560830116272, 0.1053660586476326, -0.10470683872699738, -0.255489706993103, -0.2931951880455017, -0.14642775058746338, 0.27126544713974, -0.18121325969696045, 0.07558892667293549, 0.1165296882390976, -0.00943132396787405, -0.30970093607902527, -0.47357815504074097, -0.42859405279159546, 0.10054408758878708], [-0.25076189637184143, 0.004206045996397734, -0.26242589950561523, -0.3126278519630432, -0.03467704355716705, -0.054503217339515686, 0.09538116306066513, 0.27216795086860657, -0.362861692905426, 0.3972320854663849, -0.07291784137487411, 0.010459786280989647, -0.35782718658447266, -0.33427727222442627, -0.27416589856147766, -0.038264814764261246, -0.023375222459435463, -0.5438088178634644, -0.06147218868136406, -0.10711120814085007, -0.2975429892539978, -0.07418368756771088, -0.02369939163327217, 0.2886340916156769, 0.3968101441860199, -0.10244500637054443, -0.1806315928697586, -0.4588000178337097, -0.4283185601234436, -0.4105437994003296, -0.05743050575256348, -0.38073575496673584], [-0.3116564154624939, -0.049772825092077255, 0.05155754089355469, -0.12168457359075546, 0.12846308946609497, -0.5448933839797974, 0.15817193686962128, -0.02905270643532276, -0.03414804860949516, 0.05546724423766136, -0.267000287771225, -0.14558447897434235, -0.023583916947245598, -0.389518678188324, -0.10316973179578781, -0.030747484415769577, -0.3137461543083191, -0.23455964028835297, -0.2570214569568634, 0.10487084835767746, -0.19136609137058258, -0.3298912048339844, 0.23943966627120972, 0.0754672959446907, -0.07128001749515533, 0.2582099437713623, 0.27787846326828003, -0.47717246413230896, -0.490980327129364, -0.09355882555246353, -0.45173150300979614, -0.03750946745276451], [0.0218991469591856, -0.01507258415222168, -0.08219088613986969, 0.25722119212150574, -0.03113863430917263, 0.017213938757777214, -0.3980601727962494, 0.009637339040637016, -0.05030389875173569, 0.16434034705162048, 0.10348495841026306, 0.25369954109191895, 0.07122500240802765, 0.14396986365318298, 0.24136795103549957, 0.004318233113735914, 0.12504303455352783, 0.11721500009298325, 0.10415901988744736, -0.11572634428739548, 0.11288922280073166, 0.231039360165596, -0.12736301124095917, -0.42765888571739197, -0.29038935899734497, 0.2607131898403168, 0.05268697813153267, -0.039357081055641174, 0.1750246286392212, 0.12267693877220154, -0.18548129498958588, 0.06671074777841568], [0.2265954166650772, 0.3626905381679535, -0.39760929346084595, 0.23444005846977234, 0.24486787617206573, -0.23484736680984497, 0.28724849224090576, -0.29059135913848877, 0.22605527937412262, 0.23261404037475586, -0.02861669659614563, -0.22081764042377472, 0.34965652227401733, 0.06948573887348175, 0.10072304308414459, -0.14313331246376038, 0.17013882100582123, -0.19883263111114502, 0.059694383293390274, -0.020977050065994263, -0.22119343280792236, 0.1369858980178833, 0.31706541776657104, 0.22670334577560425, -0.2772642970085144, 0.09511540830135345, -0.26931869983673096, -0.2328515499830246, -0.009170862846076488, -0.012497492134571075, -0.21424932777881622, 0.2812531888484955], [5.619408582901997e-08, -3.397051041686639e-21, -9.325061015607729e-20, 2.6101322337592796e-19, -1.3217259273272488e-17, -5.824258179872855e-20, -2.995737702349288e-07, -2.146943838810035e-16, 1.908506409861221e-21, -1.902307786538213e-18, 1.2896416023977508e-07, 2.4993235324919823e-18, 1.739192967420422e-08, -8.253024472734377e-19, 2.6389985308128416e-08, -8.048116484360435e-08, 6.598715721898431e-20, 6.492031508187855e-15, -1.9346938979230128e-19, 3.484154533437537e-20, -2.089066350493751e-18, 5.920128542114722e-19, -9.861230410024291e-08, 1.1161676027882095e-08, -1.8716877445353048e-20, 4.5128579150531534e-13, 7.142312174912799e-17, -5.452688002479182e-20, 9.239226606005957e-10, 4.873909469381887e-18, 1.1509606885503915e-19, 2.9346077212721866e-07]], "b": [0.09268397837877274, 0.5247205495834351, -0.06222603842616081, 0.156577929854393, 0.3147903382778168, 0.1688026636838913, 0.06673701852560043, -0.21898983418941498, 0.27497023344039917, -0.12216410785913467, 0.08451522886753082, 0.0784662589430809, 0.35147133469581604, 0.22514019906520844, 0.27843931317329407, 0.18697842955589294, 0.29426881670951843, 0.3775057792663574, -0.3719385266304016, -0.07303962111473083, 0.3482719957828522, 0.03957268223166466, 0.10499908030033112, 0.18804557621479034, -0.21254025399684906, -0.042338550090789795, -0.3532412648200989, -0.06494414806365967, 0.3789650797843933, 0.3962174952030182, 0.4734876751899719, 0.09146478772163391]}, {"W": [[0.31227630376815796, 0.2636685073375702, 0.10123398154973984, -0.2970062792301178, 0.08969763666391373, 0.1106112077832222, -0.2767506539821625, 0.2078055590391159, 0.3452927768230438, 0.07588376849889755, 0.0775236189365387, 0.15882599353790283, 0.023325609043240547, 0.2585079073905945, 0.1002948209643364, -0.26023316383361816, 0.05574921518564224, 0.35921886563301086, -0.18796247243881226, -0.2823207974433899, 0.319974809885025, 0.18370245397090912, 0.034985948354005814, 0.22889567911624908, -0.12925289571285248, 0.3253175616264343, 0.18286612629890442, -0.03592052310705185, 0.19930559396743774, 0.09825153648853302, 0.2462814301252365, -0.31510934233665466], [-0.09406787157058716, 0.030725331977009773, 0.08800609409809113, -0.23431648313999176, -0.03928458318114281, 0.24712741374969482, 0.14158093929290771, 0.4035358726978302, 0.3026067316532135, -0.027255510911345482, 0.19913959503173828, 0.1706407517194748, 0.26691094040870667, 0.1299360990524292, -0.09747932851314545, 0.10119958221912384, 0.4181514084339142, 0.04282088577747345, -0.25965625047683716, 0.17893768846988678, 0.16818076372146606, -0.0607072189450264, 0.056027449667453766, 0.057997871190309525, -0.18659254908561707, 0.09044027328491211, 0.10807212442159653, 0.13948865234851837, -0.02594105154275894, 0.39404764771461487, -0.3056390583515167, 0.0028961242642253637], [0.036588918417692184, 0.24883365631103516, 0.3263915479183197, -0.06636292487382889, 0.237469881772995, 0.13652057945728302, 0.20886144042015076, 0.23338399827480316, 0.3561002314090729, -0.06422966718673706, -0.08137728273868561, 0.16652287542819977, 0.20248931646347046, 0.37187469005584717, -0.31366923451423645, 0.06710192561149597, 0.3817462623119354, 0.1470969319343567, 0.04187643155455589, 0.011247891001403332, 0.2948588728904724, -0.04781069979071617, 0.11051689833402634, 0.016432583332061768, -0.01445305161178112, 0.29857969284057617, 0.0913986936211586, 0.20760782063007355, 0.11247238516807556, 0.28856468200683594, 0.11554021388292313, -0.026267003268003464], [0.07415980100631714, 0.14145587384700775, -0.14494141936302185, -0.06297747790813446, -0.053788505494594574, 0.46305060386657715, 0.11451089382171631, 0.30596694350242615, 0.42757999897003174, 0.25541970133781433, 0.3562256097793579, 0.4776889383792877, 0.026756111532449722, 0.24755631387233734, -0.04425470158457756, -0.3228699266910553, 0.08168742060661316, -0.012511476874351501, 0.1262706220149994, -0.05214712768793106, 0.06469737738370895, -0.1002655103802681, 0.39089787006378174, -0.19317114353179932, 0.04254452884197235, -0.10466433316469193, 0.08855877071619034, 0.16361631453037262, -0.011221828870475292, -0.08281497657299042, -0.1474187672138214, -0.1397038847208023], [0.11966386437416077, -0.11720182746648788, 0.019500810652971268, 0.16668446362018585, 0.21608209609985352, -0.01499343290925026, -0.1820944994688034, -0.09164885431528091, 0.13912425935268402, 0.06375310570001602, -0.05673103407025337, -0.12648139894008636, -0.08514630794525146, -0.07189580053091049, -0.29319703578948975, -0.27808040380477905, 0.06639093160629272, 0.020154835656285286, -0.15494349598884583, 0.16464769840240479, 0.4458037316799164, 0.19527430832386017, 0.15251758694648743, -0.30732500553131104, 0.11953645944595337, 0.2985743284225464, -0.2851182222366333, 0.026503168046474457, 0.02890411578118801, -0.09741245955228806, -0.09333358705043793, -0.26597246527671814], [-0.10405772924423218, 0.24105384945869446, -0.06568818539381027, 0.09252069890499115, 0.1789076030254364, 0.20430020987987518, -0.2633415758609772, 0.2816324234008789, 0.3318590819835663, -0.18569187819957733, 0.22908835113048553, -0.05274653807282448, -0.09521598368883133, -0.030156631022691727, -0.14712776243686676, -0.24788156151771545, 0.22545139491558075, 0.4114587903022766, 0.025096004828810692, -0.12119308114051819, 0.14143633842468262, -0.14880505204200745, 0.33240222930908203, -0.3312395215034485, 0.10653993487358093, -0.03846478462219238, -0.08922926336526871, 0.2686520218849182, 0.11827632784843445, -0.023580899462103844, -0.19865866005420685, 0.06978369504213333], [0.3603418171405792, 0.34093573689460754, -0.009304321371018887, 0.0019608326256275177, 0.3004382252693176, 0.22356460988521576, 0.03497923165559769, 0.36149755120277405, 0.07491353899240494, 0.34573090076446533, -0.2329408973455429, -0.08377981185913086, 0.07736288011074066, 0.08631681650876999, -0.20150138437747955, -0.3785555362701416, 0.09386778622865677, 0.3371966779232025, -0.18213851749897003, 0.06765340268611908, 0.028610344976186752, 0.062265269458293915, -0.03775588050484657, -0.1582731157541275, -0.3067770004272461, -0.10882889479398727, 0.012166157364845276, -0.21537603437900543, 0.04592590034008026, 0.2520059049129486, 0.10194046050310135, -0.0707373395562172], [-0.01403499860316515, 0.3251640200614929, 0.10084713995456696, -0.002931172028183937, -0.0327194444835186, 0.1334696263074875, -0.22270174324512482, -0.0061643244698643684, 0.09064093977212906, -0.2356431931257248, -0.1048625037074089, 0.011474616825580597, -0.06606020778417587, -0.06207355856895447, -0.10471618920564651, 0.2629454731941223, 0.32174497842788696, 0.034799374639987946, 0.08601756393909454, -0.046337492763996124, 0.23906084895133972, 0.3099980056285858, -0.028793925419449806, -0.08086947351694107, 0.05241185426712036, 0.029707154259085655, -0.3260915279388428, 0.20223617553710938, -0.1319005787372589, -0.014795680530369282, -0.19141821563243866, -0.34725651144981384], [-0.08783327788114548, -0.031766459345817566, 0.19054244458675385, -0.13370294868946075, -0.17223292589187622, 0.24873477220535278, -0.30084407329559326, 0.1643330156803131, 0.037574321031570435, 0.11765330284833908, -0.2528180480003357, 0.3020360469818115, -0.14920249581336975, -0.11851631850004196, 0.08225210011005402, 0.20695197582244873, 0.3884125053882599, 0.3857003450393677, -0.24091646075248718, -0.0809914767742157, -0.10626991093158722, -0.19534505903720856, 0.3328743278980255, -0.12578873336315155, -0.12665867805480957, 0.2811872959136963, -0.16357487440109253, 0.3008042573928833, -0.09606830775737762, 0.010862458497285843, -0.07667113840579987, -0.18555164337158203], [0.009895272552967072, 0.16586712002754211, 0.0555509515106678, -0.14143770933151245, 0.01235230453312397, 0.1484927386045456, 0.09896677732467651, 0.028126947581768036, 0.31637850403785706, 0.15515850484371185, -0.002483486430719495, -0.02334384247660637, 0.09012424945831299, 0.11439339816570282, 0.06957663595676422, 0.23962940275669098, 0.10854945331811905, 0.3725028336048126, 0.23904652893543243, 0.11256669461727142, 0.24965298175811768, 0.17309436202049255, -0.08298332989215851, 0.04319353774189949, -0.09542626887559891, -0.005648090038448572, 0.10144154727458954, 0.04374917224049568, 0.03729509934782982, 0.27692610025405884, -0.02133041061460972, -0.25850433111190796], [0.19141270220279694, 0.14286188781261444, 0.1840079426765442, -0.018939610570669174, -0.06796261668205261, -0.044266168028116226, 0.2176831066608429, -0.16770000755786896, -0.01622779667377472, 0.11963425576686859, 0.36507728695869446, 0.1565416157245636, 0.429298460483551, -0.0445246621966362, -0.060147058218717575, -0.3264034688472748, 0.11223002523183823, 0.0482310876250267, 0.0021774633787572384, -0.35743600130081177, 0.40860962867736816, -0.09467092901468277, 0.03634762391448021, -0.07788082212209702, -0.21729029715061188, 0.13062028586864471, 0.2176903486251831, -0.15407446026802063, -0.1850385069847107, -0.20906776189804077, -0.06285745650529861, -0.0857718288898468], [0.04278140515089035, 0.01197274774312973, 0.22561968863010406, -0.17023226618766785, 0.182203009724617, 0.09459134191274643, -0.31025928258895874, -0.04920060932636261, 0.09516735374927521, -0.10455337911844254, -0.12087050080299377, 0.08235657215118408, 0.2828196585178375, -0.0395396426320076, 0.13694514334201813, 0.008934871293604374, 0.21694543957710266, 0.13300618529319763, -0.03375323489308357, -0.18619751930236816, 0.2134992778301239, -0.2191435545682907, 0.34323710203170776, 0.02337193675339222, -0.09936587512493134, -0.08999757468700409, 0.09629970043897629, 0.09746985137462616, -0.21464022994041443, 0.16938787698745728, -0.13192936778068542, -0.20267267525196075], [-0.011488114483654499, 0.24480877816677094, 0.13790129125118256, 0.01718096062541008, 0.006426261737942696, 0.4422043561935425, 0.011969830840826035, 0.2205931693315506, 0.20204727351665497, 0.12194978445768356, 0.42345231771469116, -0.002526120748370886, 0.3902323842048645, 0.4438740909099579, 0.1220925971865654, 0.16498062014579773, 0.04969513416290283, 0.0019817512948065996, 0.24115531146526337, -0.1397918313741684, 0.11728964000940323, 0.2891729772090912, 0.06161772459745407, -0.034190136939287186, -0.22368814051151276, 0.4562729001045227, 0.06356769055128098, -0.05491296201944351, 0.10624752193689346, 0.03772575035691261, -0.1794930249452591, -0.019707350060343742], [-0.033959660679101944, 0.1078854352235794, 0.18542981147766113, -0.11151239275932312, 0.0917564332485199, 0.4226391017436981, -0.018383825197815895, -0.1389656960964203, 0.38888874650001526, 0.0868176743388176, 0.275556355714798, 0.22409582138061523, 0.22523599863052368, 0.043690238147974014, -0.40348154306411743, 0.15407104790210724, -0.024369588121771812, -0.1176907867193222, 0.2084656059741974, 0.17993399500846863, 0.40981099009513855, 0.14645101130008698, 0.2944692075252533, -0.2856840491294861, 0.11016000062227249, -0.11543121933937073, -0.05307915061712265, 0.12002968043088913, 0.0887199118733406, -0.0840284526348114, 0.03500424325466156, 5.999817592043947e-16], [0.21246729791164398, 0.36333751678466797, 0.01928841695189476, 0.2334108203649521, 0.17501801252365112, 0.3970888555049896, -0.08197915554046631, 0.0815664529800415, 0.05747547000646591, 0.0743180587887764, 0.20172953605651855, 0.40770596265792847, 0.2307509183883667, -0.10659871250391006, 0.16890914738178253, -0.08520635217428207, 0.2899467945098877, 0.17419302463531494, -0.1109493300318718, 0.025647666305303574, 0.11620962619781494, -0.10053842514753342, 0.04663931950926781, -0.0018661248032003641, 0.24341391026973724, -0.13758912682533264, -0.12486209720373154, 0.22897544503211975, -0.002846142975613475, 0.08415210247039795, -0.12067794054746628, -0.2299547642469406], [0.18927216529846191, 0.10004866123199463, 0.08558027446269989, -0.22888411581516266, -0.15214604139328003, 0.07302942126989365, -0.3342215418815613, 0.041791778057813644, 0.034778546541929245, -0.18482469022274017, 0.00573316914960742, 0.36023080348968506, 0.36721518635749817, 0.2196761965751648, -0.2097039669752121, -0.0788898691534996, 0.4117506146430969, 0.08303975313901901, -0.04017658531665802, -0.1627594232559204, 0.13013671338558197, 0.16912852227687836, 0.18951494991779327, 0.03349537029862404, -0.1504051685333252, 0.3221494257450104, -0.047955241054296494, -0.2243434637784958, -0.33556580543518066, 0.11120820045471191, 0.07679446041584015, 0.23294107615947723], [0.1776718944311142, 0.2278245985507965, -0.1333162784576416, 0.16612575948238373, 0.2815232574939728, 0.10284598171710968, -0.1665295511484146, 0.23086389899253845, 0.17841196060180664, -0.05961959809064865, 0.15008129179477692, 0.047888364642858505, 0.19738806784152985, 0.4574874937534332, 0.20557861030101776, 0.01859879121184349, 0.4422841966152191, 0.08337792009115219, -0.3012275695800781, -0.23660200834274292, -0.07126171886920929, 0.22290055453777313, -0.031524211168289185, 0.13202722370624542, -0.06987609714269638, 0.3832397162914276, -0.014813881367444992, 0.07514768093824387, 0.04277033731341362, 0.15917955338954926, -0.140579953789711, 0.23870863020420074], [0.14772102236747742, 0.3703033924102783, 0.3685342073440552, -0.16989433765411377, 0.05356211215257645, 0.09963936358690262, -0.18374431133270264, 0.15932229161262512, -0.006293048616498709, -0.27291813492774963, 0.24338088929653168, 0.2517090141773224, 0.02882455103099346, 0.3427123427391052, -0.048356033861637115, -0.029191182926297188, 0.41210901737213135, 0.10473761707544327, 0.057729173451662064, -0.3700939118862152, -0.06855674833059311, 0.14002956449985504, 0.45434191823005676, -0.06567999720573425, -0.329448401927948, -0.0033436084631830454, 0.1956244856119156, 0.2857635021209717, 0.19324029982089996, -0.07879604399204254, -0.36655470728874207, -2.614812274259748e-06], [0.3786264955997467, 0.039927925914525986, 0.08346088230609894, -0.28875935077667236, -0.09072044491767883, -0.06259080767631531, -0.31536173820495605, -0.20875020325183868, -0.11861316114664078, -0.08163055777549744, 0.22241058945655823, 0.022331641986966133, -0.1153303012251854, -0.07817867398262024, 0.05027027055621147, -0.24077412486076355, 0.20223736763000488, -0.19427907466888428, 0.11189581453800201, -0.12100070714950562, -0.15909872949123383, -0.2479136884212494, -0.15277650952339172, -0.048024311661720276, -0.14582036435604095, -0.15989089012145996, 0.09857144951820374, -0.030147811397910118, -0.1139950305223465, 0.052774760872125626, -0.2065563052892685, 0.056080471724271774], [0.3135032653808594, 0.1620917171239853, 0.2664572298526764, 0.06117678061127663, -0.3522660434246063, -0.06091242656111717, -0.12445609271526337, 0.3341919183731079, 0.21490734815597534, 0.17310647666454315, -0.3064488172531128, 0.23653416335582733, -0.22743795812129974, 0.07309786975383759, 0.2258448600769043, 0.053285568952560425, -0.1447167843580246, -0.025497810915112495, 0.2512647807598114, -0.21738335490226746, -0.11893563717603683, -0.007562930230051279, 0.3548998236656189, 0.1492224931716919, -0.009957286529242992, 0.17474569380283356, 0.12395718693733215, 0.13392724096775055, 0.20910748839378357, 0.09545831382274628, 0.199088916182518, -9.835427761117899e-08], [0.1687750369310379, 0.014441926032304764, 0.17518922686576843, -0.07352355867624283, -0.10606196522712708, 0.1960463672876358, 0.12961581349372864, 0.10490179061889648, 0.2211039811372757, 0.16622555255889893, 0.10999659448862076, -0.06601793318986893, 0.36540892720222473, 0.1395789384841919, 0.08591736108064651, 0.24453717470169067, 0.3569314479827881, -0.05965263396501541, -0.06870561838150024, -0.05372995138168335, 0.17832380533218384, -0.2813972234725952, 0.2229081094264984, -0.021255040541291237, -0.038096386939287186, 0.1286849081516266, -0.210075244307518, -0.07356815785169601, 0.08855552971363068, 0.3150849938392639, -0.006885185372084379, -0.25486278533935547], [0.1317528337240219, -0.055943362414836884, 0.06322983652353287, 0.2246573567390442, 0.14940671622753143, -0.056181151419878006, -0.09544121474027634, 0.1555834859609604, 0.32128193974494934, 0.2278648167848587, -0.2252127081155777, 0.23474161326885223, -0.009859107434749603, 0.07171807438135147, 0.1769387573003769, -0.21139934659004211, -0.1492696851491928, 0.1832452118396759, 0.05134833976626396, -0.08833182603120804, 0.2546637952327728, 0.05832923203706741, 0.20417910814285278, 0.16884149610996246, 0.13750995695590973, 0.2230081558227539, -0.23378416895866394, -0.055120691657066345, 0.12482196092605591, 0.08994585275650024, -0.10052968561649323, -0.19891142845153809], [0.3275355100631714, -0.0380466990172863, 0.22498373687267303, -0.13317231833934784, -0.2482239454984665, 0.4332069456577301, -0.11470308899879456, -0.030480001121759415, -0.1504887342453003, -0.24053731560707092, -0.14936818182468414, -0.034187622368335724, -0.17701773345470428, 0.2098766416311264, -0.07558172196149826, 0.12075148522853851, -0.11046532541513443, 0.28996768593788147, -0.27161160111427307, -0.13211774826049805, 0.30959925055503845, -0.0912381038069725, 0.20174340903759003, -0.08322200179100037, -0.1698269098997116, -0.13848066329956055, 0.08803115040063858, -0.05720450356602669, -0.043307192623615265, 0.24401630461215973, -0.08012751489877701, -0.10719627141952515], [0.3749437630176544, 0.20217208564281464, 0.15806032717227936, -0.21856538951396942, 0.22057029604911804, 0.14820560812950134, -0.10249185562133789, 0.39017513394355774, 0.17362038791179657, -0.08482059091329575, 0.2584535777568817, 0.023563873022794724, 0.383270263671875, 0.1358395516872406, 0.009596376679837704, -0.20797833800315857, 0.3361443877220154, 0.1624978482723236, -0.20274031162261963, -0.17170219123363495, 0.06393907964229584, 0.09460713714361191, -0.012768431566655636, 0.22764627635478973, -0.010534143075346947, 0.25087791681289673, 0.08170132339000702, -0.05276651307940483, -0.26267606019973755, -0.05998973920941353, 0.06490791589021683, 0.14980179071426392], [0.3971025347709656, -0.04085979238152504, 0.07184354960918427, -0.10312581062316895, 0.25652867555618286, 0.05277371034026146, 0.0029692098032683134, 0.14644813537597656, 0.2910001277923584, 0.09088218212127686, 0.200511634349823, -0.011864760890603065, 0.3345549702644348, 0.15817362070083618, 0.05776536464691162, 0.23935693502426147, 0.3618050515651703, -0.02033086307346821, 0.019454078748822212, 0.1060822606086731, 0.07439693063497543, 0.37832388281822205, 0.3717109262943268, -0.14237277209758759, 0.08735033124685287, 0.4635242521762848, -0.4031883180141449, -0.015838589519262314, -0.24754193425178528, 0.02290436625480652, 0.09532655775547028, 0.08143700659275055], [0.20470091700553894, -0.04045421630144119, -0.12046409398317337, 0.024091236293315887, 0.053763050585985184, 0.21648401021957397, -0.2277657389640808, 0.19607694447040558, 0.18438178300857544, -0.015070135705173016, -0.2689542770385742, 0.28169047832489014, -0.19107677042484283, -0.1189841628074646, 0.1358506679534912, 0.07680615782737732, -0.17039072513580322, 0.2957923114299774, -0.30443546175956726, 0.028145618736743927, 0.237131267786026, -0.15667928755283356, 0.1924634724855423, -0.23635627329349518, -2.6850363333581002e-18, -0.038340628147125244, -0.2815172076225281, 0.05236518010497093, -0.22250671684741974, -0.054088328033685684, 0.19615329802036285, -8.894826651504396e-17], [-0.3416372537612915, -0.4234066903591156, -0.440184623003006, -0.23383718729019165, -0.24851305782794952, -0.31357547640800476, -0.31534111499786377, -0.2158205360174179, -0.35512930154800415, -0.21528565883636475, -0.33954840898513794, -0.13694047927856445, -0.3295396864414215, -0.4103156328201294, 0.03931892290711403, -0.017129212617874146, -0.08166243135929108, -0.2557421028614044, 0.049994293600320816, -0.26497676968574524, -0.34018057584762573, 0.07564708590507507, -0.2750953435897827, 0.24761280417442322, -0.297466516494751, -0.6479732990264893, -0.3503347337245941, -0.3649596571922302, 0.19060729444026947, -0.2597738206386566, 0.12474334239959717, 2.5528018318433925e-20], [0.08052010834217072, -0.004229790531098843, -0.12130552530288696, -0.13283272087574005, 0.0739544928073883, 0.03550932556390762, 0.06329623609781265, -0.24658197164535522, -0.012198042124509811, -0.22055697441101074, -0.061001092195510864, 0.41479185223579407, 0.28719544410705566, -0.03846604377031326, -0.10861468315124512, 0.0038943032268434763, 0.15840135514736176, 0.010397526435554028, -0.34144386649131775, 0.051906879991292953, 0.20727068185806274, -0.009412499144673347, 0.11242299526929855, 0.06665536016225815, -0.2533288598060608, 0.08148206025362015, -0.04215313494205475, 0.1981179118156433, -0.13797980546951294, 0.183790385723114, -0.25606295466423035, 0.15217845141887665], [0.36160191893577576, -0.07695186883211136, 0.36514154076576233, -0.17081181704998016, -0.10422389954328537, 0.2543134093284607, 0.1691846400499344, -0.21007198095321655, -0.07344724982976913, 0.07804320752620697, 0.19914235174655914, 0.2452925592660904, -0.08017933368682861, 0.2694545090198517, -0.24249356985092163, -0.14291027188301086, 0.37721243500709534, 0.31097978353500366, -0.08748315274715424, -0.08193675428628922, 0.21497441828250885, 0.02377498149871826, -0.03206957131624222, 0.2340446561574936, -0.2232455015182495, -0.07133229821920395, -0.1765851527452469, 0.12545548379421234, -0.30422288179397583, 0.05195551738142967, -0.09833712875843048, 0.17769332230091095], [0.23351868987083435, -0.03351055458188057, -0.1423119455575943, -0.08191435039043427, 0.1574762761592865, 0.1477648913860321, -0.2938595116138458, -0.03199572116136551, 0.034669481217861176, -0.2720266282558441, -0.14856603741645813, 0.2128046751022339, 0.33056876063346863, 0.4147980511188507, -0.28586316108703613, -0.010454969480633736, -0.08907514810562134, -0.13309374451637268, 0.019061611965298653, 0.14980337023735046, 0.2925882637500763, 0.14400096237659454, 0.3549789786338806, -0.03821320831775665, 0.003502078354358673, 0.08664169907569885, -0.08148076385259628, -0.10022322833538055, 0.11671964824199677, -0.05052890256047249, -0.3245640993118286, -0.14775294065475464], [0.2786901593208313, 0.198849618434906, 0.10582151263952255, -0.09960157424211502, 0.33758512139320374, 0.22349447011947632, -0.31634411215782166, 0.17870081961154938, 0.15284600853919983, -0.0982363149523735, 0.013629904948174953, 0.2303733378648758, 0.1713162660598755, 0.28825318813323975, 0.16330835223197937, 0.011796001344919205, 0.36622756719589233, 0.1517023742198944, -0.29044923186302185, 0.16389980912208557, 0.21434058248996735, 0.27011966705322266, 0.07598412781953812, -0.3491169810295105, -0.31104207038879395, 0.1662302315235138, -0.3021814525127411, 0.28114619851112366, -0.2248959243297577, 0.3552009165287018, -0.04129151254892349, 0.04120144620537758], [0.11178751289844513, -0.027500145137310028, 0.23612269759178162, 0.04319407790899277, -0.12054213136434555, 0.20474646985530853, 0.22451570630073547, -0.05307072401046753, 0.16421960294246674, 0.02673976495862007, 0.17960448563098907, 0.2926550507545471, 0.3699047267436981, 0.27970460057258606, 0.0010573002509772778, -0.29372677206993103, 0.15431833267211914, -0.10608875751495361, -0.017539899796247482, 0.19884352385997772, -0.17733609676361084, -0.016534222289919853, 0.22670480608940125, 0.17661985754966736, -0.2554509937763214, -0.09603098779916763, 0.15905478596687317, -0.05106732249259949, 0.0544569157063961, -0.14727206528186798, -0.015565717592835426, -0.006274400278925896]], "b": [0.2519928812980652, 0.11365705728530884, -0.13560491800308228, 0.06114498898386955, 0.1763295829296112, -0.04739229753613472, 0.06879343092441559, 0.37294620275497437, 0.29552844166755676, -0.11710687726736069, 0.061953626573085785, -0.06466876715421677, 0.16497617959976196, 0.33132192492485046, -0.06497500091791153, -0.20661945641040802, 0.37892043590545654, 0.27679532766342163, -0.0862351804971695, 0.23661354184150696, 0.11234993487596512, -0.06385912746191025, 0.3114708662033081, -0.21868516504764557, 0.06989919394254684, 0.09544271975755692, -0.16152633726596832, 0.41222503781318665, 0.2515791058540344, 0.140453040599823, -0.0894283577799797, -0.3011093735694885]}, {"W": [[-0.0889214500784874, 0.20847420394420624, 0.035940106958150864, 0.29000231623649597, 0.2352878451347351, 0.14384149014949799, 0.09028773009777069, 0.25163137912750244, -0.07534942030906677, 0.379096120595932, -0.18472647666931152, 0.3833722472190857, 0.3750569522380829, -0.019371015951037407, 0.07315224409103394, 0.32439884543418884], [0.26619836688041687, 0.05772358179092407, 0.02460133284330368, 0.48757055401802063, 0.28259798884391785, -0.010971791110932827, 0.46442094445228577, 0.2969924807548523, 0.2836743891239166, -0.0683380514383316, 0.2426551729440689, 0.2995804250240326, -0.1417052000761032, 0.36566489934921265, 0.3202705383300781, 0.5233643651008606], [0.36596450209617615, 0.10149789601564407, -0.24519047141075134, -0.15076710283756256, 0.04582538828253746, 0.12413499504327774, -0.06516923010349274, -0.04627422243356705, 0.3067394196987152, 0.2361028641462326, 0.2677209973335266, 0.09471938759088516, 0.11150229722261429, -0.03824510797858238, 0.2695632874965668, 0.025576861575245857], [-0.31768807768821716, -0.27050700783729553, -0.25395631790161133, 0.31306326389312744, -0.16797365248203278, 0.3194727301597595, 0.35793808102607727, 0.29103440046310425, 0.1317717432975769, 0.32595735788345337, -0.22582826018333435, 0.0787244513630867, -0.2651282250881195, -0.2926144003868103, -0.2341594099998474, 0.006219292525202036], [-0.06943043321371078, 0.046692200005054474, -0.25460392236709595, 0.25281819701194763, 0.09832576662302017, -0.15027126669883728, 0.225546732544899, 0.2780616581439972, 0.04144895076751709, 0.29611942172050476, 0.16841468214988708, -0.10549796372652054, 0.2835614085197449, 0.1556188315153122, 0.43879592418670654, 0.01895018108189106], [0.20608334243297577, 0.11378773301839828, 0.2564464807510376, -0.11566124111413956, 0.3072582483291626, 0.06540093570947647, 0.293052077293396, 0.3358055353164673, 0.2335164099931717, 0.07181499898433685, 0.009465735405683517, -0.002025516238063574, -0.03201962634921074, 0.22914902865886688, 0.46157824993133545, 0.017168527469038963], [0.37465816736221313, -0.28388234972953796, -0.11797355115413666, -0.010776227340102196, -0.14797504246234894, 0.12640786170959473, 0.02512429840862751, -0.032625164836645126, 0.321776419878006, -0.07432493567466736, -0.1988525241613388, -0.18525029718875885, -0.23579303920269012, -0.1873481720685959, 0.14524008333683014, 0.18432362377643585], [-0.01688932068645954, -0.037823762744665146, 0.10985392332077026, 0.2175285816192627, 0.2798877954483032, 0.08787412196397781, 0.2811109721660614, 0.20572501420974731, 0.028033895418047905, 0.2362482100725174, 0.43399229645729065, 0.12722396850585938, 0.2449730932712555, 0.18447329103946686, -0.07189962267875671, -0.1370169073343277], [0.34373170137405396, 0.17981493473052979, 0.3138757348060608, -0.09069742262363434, 0.00494814058765769, 0.3884412944316864, -0.10343920439481735, 0.22998090088367462, 0.07399018108844757, -0.06038602069020271, 0.25722551345825195, 0.3607102036476135, -0.07013816386461258, 0.39950501918792725, 0.41484805941581726, 0.4850981831550598], [0.06493154913187027, -0.32287514209747314, -0.14097146689891815, 0.044688787311315536, -0.1703517735004425, -0.15932828187942505, -0.006542941089719534, -0.14078344404697418, -0.2879079580307007, -0.20913365483283997, -0.09211612492799759, 0.032346077263355255, 0.37451985478401184, -0.1047312319278717, -0.11570710688829422, -0.15293243527412415], [-0.07538863271474838, 0.22927376627922058, -0.13578248023986816, 0.44253548979759216, -0.09356395155191422, 0.03040427155792713, -0.09385791420936584, -0.08206083625555038, -0.04378058388829231, 0.38746583461761475, 0.3687041699886322, 0.2539798617362976, 0.2328350692987442, 0.37233418226242065, 0.34790825843811035, 0.18053142726421356], [0.3955329656600952, 0.2932761609554291, 0.06658004969358444, 0.34383758902549744, 0.4200372099876404, 0.1749691516160965, 0.3078443706035614, 0.4421371817588806, -0.0982913225889206, 0.3737775385379791, 0.3714301586151123, 0.10526314377784729, 0.47186750173568726, 0.2640865445137024, 0.012846646830439568, 0.31404441595077515], [0.3012455105781555, 0.3407406806945801, 0.30824849009513855, -0.07956809550523758, 0.31302279233932495, 0.23035137355327606, 0.35217562317848206, 0.08721138536930084, 0.34878262877464294, 0.1565462350845337, 0.18590158224105835, 0.27955377101898193, 0.30118948221206665, -0.018237439915537834, 0.10446594655513763, 0.20454402267932892], [0.17313773930072784, 0.17140047252178192, 0.34536468982696533, 0.4299381375312805, 0.08870529383420944, 0.4207874536514282, 0.21723152697086334, 0.20031365752220154, 0.3124265670776367, 0.07816732674837112, -0.09044940024614334, 0.40825608372688293, -0.04228980094194412, 0.48648345470428467, 0.3883070945739746, -0.09697723388671875], [-0.2388649731874466, 0.34204989671707153, 0.2713117301464081, 0.03856643661856651, -0.11250829696655273, 0.201633483171463, -0.21465565264225006, -0.2072523981332779, -0.15003904700279236, 0.0496567003428936, 0.3224020302295685, 0.006665143184363842, 0.06476501375436783, -0.19215822219848633, -0.2161286324262619, 0.27292823791503906], [-0.18687903881072998, -0.1919078230857849, 0.0634469985961914, 0.31374219059944153, 0.3662486970424652, -0.2605723738670349, 0.17892611026763916, -0.22031168639659882, -0.018538866192102432, 0.1563001275062561, -0.06336689740419388, -0.037379711866378784, -0.1757887452840805, -0.2667970061302185, 0.2974660098552704, 0.07765661180019379], [0.010158642195165157, 0.06608332693576813, 0.36971408128738403, 0.15857090055942535, 0.17562347650527954, 0.3991219401359558, -0.014152878895401955, 0.1305709332227707, 0.3254821300506592, 0.08947115391492844, 0.4019651710987091, 0.18584921956062317, 0.3959197998046875, -0.08072510361671448, 0.15561673045158386, 0.002542900387197733], [0.26039570569992065, 0.4409782886505127, -0.018371468409895897, 0.26539191603660583, 0.009421627037227154, 0.4147844612598419, 0.056940630078315735, -0.06822273880243301, 0.41831865906715393, 0.035622403025627136, 0.318198561668396, 0.4150148928165436, -0.027867460623383522, 0.1582634598016739, 0.46246016025543213, 0.18899120390415192], [0.187851220369339, 0.040668364614248276, -0.2881720960140228, -0.08140307664871216, 0.11045293509960175, 0.02512959949672222, -0.22796031832695007, 0.369983434677124, -0.099051833152771, -0.2954420745372772, 0.15099802613258362, 0.0753931775689125, -0.1021946594119072, -0.2401343733072281, -0.29299893975257874, 0.22409707307815552], [0.043753206729888916, 0.18718434870243073, 0.11861006170511246, -0.18097823858261108, -0.19594676792621613, 0.2610757052898407, -0.2657674252986908, 0.3679824471473694, -0.23882392048835754, 0.10943372547626495, -0.153299018740654, -0.15591102838516235, -0.03802762180566788, 0.034019216895103455, -0.19834919273853302, -0.15356095135211945], [0.34580668807029724, -0.00716395815834403, 0.35118013620376587, 0.3016676604747772, 0.3583275377750397, 0.26340627670288086, 0.3579995632171631, 0.38176989555358887, 0.004900059197098017, 0.21601587533950806, 0.40306422114372253, 0.15286846458911896, 0.048697397112846375, 0.4671168029308319, -0.04689900949597359, 0.05161982774734497], [0.29849696159362793, 0.4457302689552307, 0.30952006578445435, -0.1220925897359848, -0.08110666275024414, -0.06852109730243683, 0.04495254531502724, -0.27357155084609985, -0.0577923059463501, 0.09298384189605713, 0.027098340913653374, -0.09884992241859436, -0.005678296554833651, 0.10554483532905579, -0.20272813737392426, 0.08594132214784622], [-0.029539816081523895, 0.4618555009365082, 0.36259588599205017, 0.34682539105415344, -0.14997631311416626, -0.005275845527648926, 0.24053499102592468, -0.11461934447288513, 0.4950198531150818, 0.12822720408439636, 0.3544829785823822, 0.14364629983901978, 0.276938796043396, 0.05921383574604988, 0.3007672429084778, 0.4273180365562439], [0.12084762006998062, -0.20941586792469025, 0.18703420460224152, -0.1386835277080536, -0.2898482382297516, -0.17933398485183716, -0.07632673531770706, 0.13692791759967804, 0.05624593049287796, -0.007233357056975365, 0.13264904916286469, -0.18357546627521515, -0.06495138257741928, -0.005136402323842049, 0.34326988458633423, 0.36282971501350403], [0.31271132826805115, -0.06286682188510895, 0.04043181613087654, -0.20278066396713257, -0.30532512068748474, -0.2744104266166687, -0.2902301549911499, -0.009066993370652199, 0.08372565358877182, -0.2981351613998413, 0.13637593388557434, 0.18976368010044098, -0.013800384476780891, -0.09853967279195786, 0.23148763179779053, -0.20574264228343964], [0.4738532602787018, 0.15590570867061615, 0.2191612422466278, 0.0069952853955328465, 0.276797890663147, 0.11391523480415344, 0.23860640823841095, 0.45362481474876404, 0.3173341751098633, 0.23374922573566437, -0.17814554274082184, -0.1671139895915985, 0.15572036802768707, -0.07119965553283691, -0.11109842360019684, 0.41983968019485474], [-0.2176956981420517, -0.1489602029323578, 0.062098268419504166, -0.1987682729959488, 0.3283219337463379, -0.2592751383781433, 0.12361130863428116, 0.03232130408287048, 0.06727536767721176, -0.04270778223872185, 0.32685714960098267, 0.2166087031364441, 0.2539651393890381, -0.15940627455711365, -0.01879718340933323, 0.03211021050810814], [0.2910889983177185, 0.12271449714899063, 0.2177649736404419, -0.04331548884510994, 0.303031861782074, 0.17035901546478271, 0.18448059260845184, 0.23528823256492615, -0.130970299243927, 0.30717334151268005, -0.5647268891334534, 0.2341325879096985, 0.0778464823961258, 0.09819993376731873, -0.20592136681079865, 0.08957234025001526], [-0.030576299875974655, 0.18557880818843842, -0.06256438791751862, -0.15838685631752014, 0.10345819592475891, -0.11010821908712387, 0.37584999203681946, 0.3333643972873688, -0.19888217747211456, 0.1820569634437561, 0.15143828094005585, 0.17399412393569946, 0.12540943920612335, -0.19439764320850372, -0.1086001917719841, -0.01718864217400551], [-0.02334066666662693, -0.0920209139585495, 0.14896832406520844, 0.3432820737361908, 0.31106337904930115, -0.07270603626966476, 0.020218316465616226, -0.14834167063236237, 0.13192826509475708, 0.4443579316139221, -0.0163311418145895, -0.16506212949752808, 0.4917043149471283, 0.3363022804260254, -0.16889378428459167, -0.06310545653104782], [0.08113884180784225, 0.018378404900431633, -0.13847331702709198, -0.03885602205991745, -0.22532489895820618, -0.23098018765449524, -0.026041872799396515, 0.28175148367881775, 0.04354577511548996, 0.36963769793510437, 0.24465280771255493, 0.04176976904273033, -0.29375821352005005, -0.13369493186473846, -0.22669968008995056, 0.07328919321298599], [-0.21055597066879272, -0.23946748673915863, 0.09222932904958725, -0.3250567615032196, 0.17954835295677185, -0.2973177433013916, 0.10481440275907516, 0.0005632277461700141, 0.0858115702867508, 0.30331292748451233, -0.26596787571907043, -0.3159736692905426, 0.23152625560760498, -0.14119859039783478, 0.3175736963748932, -0.23656728863716125]], "b": [-0.011372623033821583, 0.2770630419254303, -0.01709858328104019, 0.032142266631126404, 0.10773511976003647, -0.013243268243968487, 0.35417917370796204, 0.3501269221305847, 0.13957281410694122, 0.4627705216407776, 0.33410656452178955, -0.11647459119558334, 0.4704277515411377, 0.01823524199426174, -0.01874135248363018, 0.4504762887954712]}], "activation": "relu", "schema_version_tag": "zenwebp.picker.v0.1.spike", "metrics": {"teacher": {"name": "HistGB teacher", "n": 45, "unreachable": 0, "argmin_accuracy": 0.1111111111111111, "overhead_mean_pct": 5.432461738586426, "overhead_p50_pct": 2.7184059619903564, "overhead_p75_pct": 7.400216102600098, "overhead_p90_pct": 12.55988597869873}, "student": {"name": "MLP student", "n": 45, "unreachable": 0, "argmin_accuracy": 0.2, "overhead_mean_pct": 5.043946743011475, "overhead_p50_pct": 2.140995740890503, "overhead_p75_pct": 7.403909206390381, "overhead_p90_pct": 13.05095386505127}, "bucket_drawing_overhead_pct": 2.7051103115081787}}